digraph Tree {
node [shape=box] ;
0 [label="X[45] <= 1.5\nentropy = 0.818\nsamples = 1008\nvalue = [752, 256]"] ;
1 [label="X[7] <= -0.5\nentropy = 0.121\nsamples = 61\nvalue = [1, 60]"] ;
0 -> 1 [labeldistance=2.5, labelangle=45, headlabel="True"] ;
2 [label="entropy = 0.124\nsamples = 59\nvalue = [1, 58]"] ;
1 -> 2 ;
3 [label="entropy = 0.0\nsamples = 2\nvalue = [0, 2]"] ;
1 -> 3 ;
4 [label="X[53] <= 9.5\nentropy = 0.736\nsamples = 947\nvalue = [751, 196]"] ;
0 -> 4 [labeldistance=2.5, labelangle=-45, headlabel="False"] ;
5 [label="X[54] <= 6.5\nentropy = 0.57\nsamples = 831\nvalue = [719, 112]"] ;
4 -> 5 ;
6 [label="X[17] <= 248.0\nentropy = 0.367\nsamples = 712\nvalue = [662, 50]"] ;
5 -> 6 ;
7 [label="X[1] <= 1252.5\nentropy = 0.304\nsamples = 700\nvalue = [662, 38]"] ;
6 -> 7 ;
8 [label="X[11] <= 19.5\nentropy = 0.224\nsamples = 666\nvalue = [642, 24]"] ;
7 -> 8 ;
9 [label="X[37] <= 11.5\nentropy = 0.307\nsamples = 437\nvalue = [413, 24]"] ;
8 -> 9 ;
10 [label="X[13] <= 24.5\nentropy = 0.439\nsamples = 242\nvalue = [220, 22]"] ;
9 -> 10 ;
11 [label="X[54] <= 1.5\nentropy = 0.798\nsamples = 62\nvalue = [47, 15]"] ;
10 -> 11 ;
12 [label="X[43] <= 243.5\nentropy = 0.627\nsamples = 51\nvalue = [43, 8]"] ;
11 -> 12 ;
13 [label="X[45] <= 48.0\nentropy = 0.991\nsamples = 9\nvalue = [4, 5]"] ;
12 -> 13 ;
14 [label="X[53] <= 0.0\nentropy = 0.722\nsamples = 5\nvalue = [4, 1]"] ;
13 -> 14 ;
15 [label="entropy = 0.0\nsamples = 4\nvalue = [4, 0]"] ;
14 -> 15 ;
16 [label="entropy = 0.0\nsamples = 1\nvalue = [0, 1]"] ;
14 -> 16 ;
17 [label="entropy = 0.0\nsamples = 4\nvalue = [0, 4]"] ;
13 -> 17 ;
18 [label="X[9] <= 224.5\nentropy = 0.371\nsamples = 42\nvalue = [39, 3]"] ;
12 -> 18 ;
19 [label="entropy = 0.0\nsamples = 28\nvalue = [28, 0]"] ;
18 -> 19 ;
20 [label="X[3] <= 163.5\nentropy = 0.75\nsamples = 14\nvalue = [11, 3]"] ;
18 -> 20 ;
21 [label="X[44] <= 3166.5\nentropy = 0.811\nsamples = 4\nvalue = [1, 3]"] ;
20 -> 21 ;
22 [label="entropy = 0.0\nsamples = 3\nvalue = [0, 3]"] ;
21 -> 22 ;
23 [label="entropy = 0.0\nsamples = 1\nvalue = [1, 0]"] ;
21 -> 23 ;
24 [label="entropy = 0.0\nsamples = 10\nvalue = [10, 0]"] ;
20 -> 24 ;
25 [label="X[18] <= 0.0\nentropy = 0.946\nsamples = 11\nvalue = [4, 7]"] ;
11 -> 25 ;
26 [label="X[15] <= 88.5\nentropy = 0.918\nsamples = 6\nvalue = [4, 2]"] ;
25 -> 26 ;
27 [label="X[9] <= 39.5\nentropy = 0.722\nsamples = 5\nvalue = [4, 1]"] ;
26 -> 27 ;
28 [label="entropy = 0.0\nsamples = 1\nvalue = [0, 1]"] ;
27 -> 28 ;
29 [label="entropy = 0.0\nsamples = 4\nvalue = [4, 0]"] ;
27 -> 29 ;
30 [label="entropy = 0.0\nsamples = 1\nvalue = [0, 1]"] ;
26 -> 30 ;
31 [label="entropy = 0.0\nsamples = 5\nvalue = [0, 5]"] ;
25 -> 31 ;
32 [label="X[24] <= 10189.0\nentropy = 0.237\nsamples = 180\nvalue = [173, 7]"] ;
10 -> 32 ;
33 [label="X[4] <= 156.0\nentropy = 0.185\nsamples = 178\nvalue = [173, 5]"] ;
32 -> 33 ;
34 [label="X[9] <= 830.0\nentropy = 0.156\nsamples = 177\nvalue = [173, 4]"] ;
33 -> 34 ;
35 [label="X[11] <= 10.5\nentropy = 0.095\nsamples = 163\nvalue = [161, 2]"] ;
34 -> 35 ;
36 [label="entropy = 0.0\nsamples = 148\nvalue = [148, 0]"] ;
35 -> 36 ;
37 [label="X[46] <= 59.5\nentropy = 0.567\nsamples = 15\nvalue = [13, 2]"] ;
35 -> 37 ;
38 [label="X[13] <= 38.5\nentropy = 0.918\nsamples = 3\nvalue = [1, 2]"] ;
37 -> 38 ;
39 [label="entropy = 0.0\nsamples = 1\nvalue = [1, 0]"] ;
38 -> 39 ;
40 [label="entropy = 0.0\nsamples = 2\nvalue = [0, 2]"] ;
38 -> 40 ;
41 [label="entropy = 0.0\nsamples = 12\nvalue = [12, 0]"] ;
37 -> 41 ;
42 [label="X[5] <= 28.5\nentropy = 0.592\nsamples = 14\nvalue = [12, 2]"] ;
34 -> 42 ;
43 [label="entropy = 0.0\nsamples = 2\nvalue = [0, 2]"] ;
42 -> 43 ;
44 [label="entropy = 0.0\nsamples = 12\nvalue = [12, 0]"] ;
42 -> 44 ;
45 [label="entropy = 0.0\nsamples = 1\nvalue = [0, 1]"] ;
33 -> 45 ;
46 [label="entropy = 0.0\nsamples = 2\nvalue = [0, 2]"] ;
32 -> 46 ;
47 [label="X[46] <= 0.5\nentropy = 0.082\nsamples = 195\nvalue = [193, 2]"] ;
9 -> 47 ;
48 [label="entropy = 0.0\nsamples = 1\nvalue = [0, 1]"] ;
47 -> 48 ;
49 [label="X[34] <= 109.0\nentropy = 0.047\nsamples = 194\nvalue = [193, 1]"] ;
47 -> 49 ;
50 [label="entropy = 0.0\nsamples = 187\nvalue = [187, 0]"] ;
49 -> 50 ;
51 [label="X[47] <= 28.5\nentropy = 0.592\nsamples = 7\nvalue = [6, 1]"] ;
49 -> 51 ;
52 [label="entropy = 0.0\nsamples = 1\nvalue = [0, 1]"] ;
51 -> 52 ;
53 [label="entropy = 0.0\nsamples = 6\nvalue = [6, 0]"] ;
51 -> 53 ;
54 [label="entropy = 0.0\nsamples = 229\nvalue = [229, 0]"] ;
8 -> 54 ;
55 [label="X[1] <= 1670.5\nentropy = 0.977\nsamples = 34\nvalue = [20, 14]"] ;
7 -> 55 ;
56 [label="X[6] <= 871.0\nentropy = 0.894\nsamples = 29\nvalue = [20, 9]"] ;
55 -> 56 ;
57 [label="entropy = 0.0\nsamples = 8\nvalue = [8, 0]"] ;
56 -> 57 ;
58 [label="X[13] <= 8.5\nentropy = 0.985\nsamples = 21\nvalue = [12, 9]"] ;
56 -> 58 ;
59 [label="X[29] <= 5.5\nentropy = 0.65\nsamples = 6\nvalue = [1, 5]"] ;
58 -> 59 ;
60 [label="entropy = 0.0\nsamples = 5\nvalue = [0, 5]"] ;
59 -> 60 ;
61 [label="entropy = 0.0\nsamples = 1\nvalue = [1, 0]"] ;
59 -> 61 ;
62 [label="X[43] <= 2328.0\nentropy = 0.837\nsamples = 15\nvalue = [11, 4]"] ;
58 -> 62 ;
63 [label="entropy = 0.0\nsamples = 7\nvalue = [7, 0]"] ;
62 -> 63 ;
64 [label="X[11] <= 132.5\nentropy = 1.0\nsamples = 8\nvalue = [4, 4]"] ;
62 -> 64 ;
65 [label="X[46] <= 941.0\nentropy = 0.722\nsamples = 5\nvalue = [1, 4]"] ;
64 -> 65 ;
66 [label="entropy = 0.0\nsamples = 4\nvalue = [0, 4]"] ;
65 -> 66 ;
67 [label="entropy = 0.0\nsamples = 1\nvalue = [1, 0]"] ;
65 -> 67 ;
68 [label="entropy = 0.0\nsamples = 3\nvalue = [3, 0]"] ;
64 -> 68 ;
69 [label="entropy = 0.0\nsamples = 5\nvalue = [0, 5]"] ;
55 -> 69 ;
70 [label="entropy = 0.0\nsamples = 12\nvalue = [0, 12]"] ;
6 -> 70 ;
71 [label="X[54] <= 15.5\nentropy = 0.999\nsamples = 119\nvalue = [57, 62]"] ;
5 -> 71 ;
72 [label="X[1] <= 1258.5\nentropy = 0.993\nsamples = 102\nvalue = [56, 46]"] ;
71 -> 72 ;
73 [label="X[45] <= 814.0\nentropy = 0.968\nsamples = 91\nvalue = [55, 36]"] ;
72 -> 73 ;
74 [label="X[28] <= 1111.0\nentropy = 0.752\nsamples = 51\nvalue = [40, 11]"] ;
73 -> 74 ;
75 [label="X[4] <= 73.5\nentropy = 0.567\nsamples = 45\nvalue = [39, 6]"] ;
74 -> 75 ;
76 [label="X[34] <= 56.5\nentropy = 0.31\nsamples = 36\nvalue = [34, 2]"] ;
75 -> 76 ;
77 [label="entropy = 0.0\nsamples = 32\nvalue = [32, 0]"] ;
76 -> 77 ;
78 [label="X[44] <= 105.0\nentropy = 1.0\nsamples = 4\nvalue = [2, 2]"] ;
76 -> 78 ;
79 [label="entropy = 0.0\nsamples = 2\nvalue = [2, 0]"] ;
78 -> 79 ;
80 [label="entropy = 0.0\nsamples = 2\nvalue = [0, 2]"] ;
78 -> 80 ;
81 [label="X[3] <= 293.5\nentropy = 0.991\nsamples = 9\nvalue = [5, 4]"] ;
75 -> 81 ;
82 [label="X[9] <= 622.0\nentropy = 0.722\nsamples = 5\nvalue = [1, 4]"] ;
81 -> 82 ;
83 [label="entropy = 0.0\nsamples = 4\nvalue = [0, 4]"] ;
82 -> 83 ;
84 [label="entropy = 0.0\nsamples = 1\nvalue = [1, 0]"] ;
82 -> 84 ;
85 [label="entropy = 0.0\nsamples = 4\nvalue = [4, 0]"] ;
81 -> 85 ;
86 [label="X[27] <= 297.5\nentropy = 0.65\nsamples = 6\nvalue = [1, 5]"] ;
74 -> 86 ;
87 [label="entropy = 0.0\nsamples = 5\nvalue = [0, 5]"] ;
86 -> 87 ;
88 [label="entropy = 0.0\nsamples = 1\nvalue = [1, 0]"] ;
86 -> 88 ;
89 [label="X[8] <= 12.5\nentropy = 0.954\nsamples = 40\nvalue = [15, 25]"] ;
73 -> 89 ;
90 [label="X[9] <= 1047.5\nentropy = 0.426\nsamples = 23\nvalue = [2, 21]"] ;
89 -> 90 ;
91 [label="X[48] <= 96.0\nentropy = 0.267\nsamples = 22\nvalue = [1, 21]"] ;
90 -> 91 ;
92 [label="entropy = 0.0\nsamples = 18\nvalue = [0, 18]"] ;
91 -> 92 ;
93 [label="X[12] <= 19.5\nentropy = 0.811\nsamples = 4\nvalue = [1, 3]"] ;
91 -> 93 ;
94 [label="entropy = 0.0\nsamples = 1\nvalue = [1, 0]"] ;
93 -> 94 ;
95 [label="entropy = 0.0\nsamples = 3\nvalue = [0, 3]"] ;
93 -> 95 ;
96 [label="entropy = 0.0\nsamples = 1\nvalue = [1, 0]"] ;
90 -> 96 ;
97 [label="X[3] <= 313.5\nentropy = 0.787\nsamples = 17\nvalue = [13, 4]"] ;
89 -> 97 ;
98 [label="entropy = 0.0\nsamples = 9\nvalue = [9, 0]"] ;
97 -> 98 ;
99 [label="X[43] <= 1980.5\nentropy = 1.0\nsamples = 8\nvalue = [4, 4]"] ;
97 -> 99 ;
100 [label="X[9] <= 868.0\nentropy = 0.722\nsamples = 5\nvalue = [1, 4]"] ;
99 -> 100 ;
101 [label="entropy = 0.0\nsamples = 4\nvalue = [0, 4]"] ;
100 -> 101 ;
102 [label="entropy = 0.0\nsamples = 1\nvalue = [1, 0]"] ;
100 -> 102 ;
103 [label="entropy = 0.0\nsamples = 3\nvalue = [3, 0]"] ;
99 -> 103 ;
104 [label="X[54] <= 14.0\nentropy = 0.439\nsamples = 11\nvalue = [1, 10]"] ;
72 -> 104 ;
105 [label="entropy = 0.0\nsamples = 10\nvalue = [0, 10]"] ;
104 -> 105 ;
106 [label="entropy = 0.0\nsamples = 1\nvalue = [1, 0]"] ;
104 -> 106 ;
107 [label="X[53] <= 1.5\nentropy = 0.323\nsamples = 17\nvalue = [1, 16]"] ;
71 -> 107 ;
108 [label="X[0] <= 5550.0\nentropy = 1.0\nsamples = 2\nvalue = [1, 1]"] ;
107 -> 108 ;
109 [label="entropy = 0.0\nsamples = 1\nvalue = [1, 0]"] ;
108 -> 109 ;
110 [label="entropy = 0.0\nsamples = 1\nvalue = [0, 1]"] ;
108 -> 110 ;
111 [label="entropy = 0.0\nsamples = 15\nvalue = [0, 15]"] ;
107 -> 111 ;
112 [label="X[14] <= 25.0\nentropy = 0.85\nsamples = 116\nvalue = [32, 84]"] ;
4 -> 112 ;
113 [label="X[15] <= 9.0\nentropy = 0.52\nsamples = 60\nvalue = [7, 53]"] ;
112 -> 113 ;
114 [label="X[6] <= 808.5\nentropy = 0.871\nsamples = 24\nvalue = [7, 17]"] ;
113 -> 114 ;
115 [label="X[33] <= 36.0\nentropy = 0.997\nsamples = 15\nvalue = [7, 8]"] ;
114 -> 115 ;
116 [label="entropy = 0.0\nsamples = 4\nvalue = [4, 0]"] ;
115 -> 116 ;
117 [label="X[27] <= 195.0\nentropy = 0.845\nsamples = 11\nvalue = [3, 8]"] ;
115 -> 117 ;
118 [label="entropy = 0.0\nsamples = 7\nvalue = [0, 7]"] ;
117 -> 118 ;
119 [label="X[47] <= 42.0\nentropy = 0.811\nsamples = 4\nvalue = [3, 1]"] ;
117 -> 119 ;
120 [label="entropy = 0.0\nsamples = 3\nvalue = [3, 0]"] ;
119 -> 120 ;
121 [label="entropy = 0.0\nsamples = 1\nvalue = [0, 1]"] ;
119 -> 121 ;
122 [label="entropy = 0.0\nsamples = 9\nvalue = [0, 9]"] ;
114 -> 122 ;
123 [label="entropy = 0.0\nsamples = 36\nvalue = [0, 36]"] ;
113 -> 123 ;
124 [label="X[2] <= 2011.0\nentropy = 0.992\nsamples = 56\nvalue = [25, 31]"] ;
112 -> 124 ;
125 [label="entropy = 0.0\nsamples = 10\nvalue = [10, 0]"] ;
124 -> 125 ;
126 [label="X[54] <= 6.5\nentropy = 0.911\nsamples = 46\nvalue = [15, 31]"] ;
124 -> 126 ;
127 [label="X[44] <= 3636.0\nentropy = 0.672\nsamples = 34\nvalue = [6, 28]"] ;
126 -> 127 ;
128 [label="X[15] <= 209.5\nentropy = 0.918\nsamples = 6\nvalue = [4, 2]"] ;
127 -> 128 ;
129 [label="entropy = 0.0\nsamples = 2\nvalue = [0, 2]"] ;
128 -> 129 ;
130 [label="entropy = 0.0\nsamples = 4\nvalue = [4, 0]"] ;
128 -> 130 ;
131 [label="X[44] <= 11870.5\nentropy = 0.371\nsamples = 28\nvalue = [2, 26]"] ;
127 -> 131 ;
132 [label="entropy = 0.0\nsamples = 21\nvalue = [0, 21]"] ;
131 -> 132 ;
133 [label="X[7] <= 83.5\nentropy = 0.863\nsamples = 7\nvalue = [2, 5]"] ;
131 -> 133 ;
134 [label="entropy = 0.0\nsamples = 4\nvalue = [0, 4]"] ;
133 -> 134 ;
135 [label="X[6] <= 1070.0\nentropy = 0.918\nsamples = 3\nvalue = [2, 1]"] ;
133 -> 135 ;
136 [label="entropy = 0.0\nsamples = 1\nvalue = [0, 1]"] ;
135 -> 136 ;
137 [label="entropy = 0.0\nsamples = 2\nvalue = [2, 0]"] ;
135 -> 137 ;
138 [label="X[54] <= 15.5\nentropy = 0.811\nsamples = 12\nvalue = [9, 3]"] ;
126 -> 138 ;
139 [label="X[4] <= 77.0\nentropy = 0.469\nsamples = 10\nvalue = [9, 1]"] ;
138 -> 139 ;
140 [label="entropy = 0.0\nsamples = 9\nvalue = [9, 0]"] ;
139 -> 140 ;
141 [label="entropy = 0.0\nsamples = 1\nvalue = [0, 1]"] ;
139 -> 141 ;
142 [label="entropy = 0.0\nsamples = 2\nvalue = [0, 2]"] ;
138 -> 142 ;
}
