digraph Tree {
node [shape=box] ;
0 [label="X[0] <= 32.0\ngini = 0.181\nsamples = 3219\nvalue = [2896, 323]"] ;
1 [label="X[7] <= -0.5\ngini = 0.117\nsamples = 64\nvalue = [4, 60]"] ;
0 -> 1 [labeldistance=2.5, labelangle=45, headlabel="True"] ;
2 [label="gini = 0.123\nsamples = 61\nvalue = [4, 57]"] ;
1 -> 2 ;
3 [label="gini = 0.0\nsamples = 3\nvalue = [0, 3]"] ;
1 -> 3 ;
4 [label="X[2] <= 1493.0\ngini = 0.153\nsamples = 3155\nvalue = [2892, 263]"] ;
0 -> 4 [labeldistance=2.5, labelangle=-45, headlabel="False"] ;
5 [label="X[14] <= 301.5\ngini = 0.131\nsamples = 2998\nvalue = [2787, 211]"] ;
4 -> 5 ;
6 [label="X[12] <= 195.5\ngini = 0.123\nsamples = 2957\nvalue = [2763, 194]"] ;
5 -> 6 ;
7 [label="X[18] <= 207.0\ngini = 0.12\nsamples = 2953\nvalue = [2763, 190]"] ;
6 -> 7 ;
8 [label="X[5] <= 60.5\ngini = 0.108\nsamples = 2680\nvalue = [2526, 154]"] ;
7 -> 8 ;
9 [label="X[26] <= 3135.0\ngini = 0.073\nsamples = 1611\nvalue = [1550, 61]"] ;
8 -> 9 ;
10 [label="X[0] <= 186.5\ngini = 0.072\nsamples = 1610\nvalue = [1550, 60]"] ;
9 -> 10 ;
11 [label="X[12] <= 0.5\ngini = 0.311\nsamples = 26\nvalue = [21, 5]"] ;
10 -> 11 ;
12 [label="X[0] <= 174.5\ngini = 0.219\nsamples = 24\nvalue = [21, 3]"] ;
11 -> 12 ;
13 [label="X[8] <= 6.0\ngini = 0.091\nsamples = 21\nvalue = [20, 1]"] ;
12 -> 13 ;
14 [label="gini = 0.0\nsamples = 18\nvalue = [18, 0]"] ;
13 -> 14 ;
15 [label="gini = 0.444\nsamples = 3\nvalue = [2, 1]"] ;
13 -> 15 ;
16 [label="X[31] <= 3.5\ngini = 0.444\nsamples = 3\nvalue = [1, 2]"] ;
12 -> 16 ;
17 [label="gini = 0.0\nsamples = 1\nvalue = [0, 1]"] ;
16 -> 17 ;
18 [label="gini = 0.5\nsamples = 2\nvalue = [1, 1]"] ;
16 -> 18 ;
19 [label="gini = 0.0\nsamples = 2\nvalue = [0, 2]"] ;
11 -> 19 ;
20 [label="X[16] <= 1070.5\ngini = 0.067\nsamples = 1584\nvalue = [1529, 55]"] ;
10 -> 20 ;
21 [label="X[11] <= 103.5\ngini = 0.066\nsamples = 1582\nvalue = [1528, 54]"] ;
20 -> 21 ;
22 [label="gini = 0.0\nsamples = 258\nvalue = [258, 0]"] ;
21 -> 22 ;
23 [label="X[25] <= 1111.0\ngini = 0.078\nsamples = 1324\nvalue = [1270, 54]"] ;
21 -> 23 ;
24 [label="X[11] <= 110.0\ngini = 0.07\nsamples = 1258\nvalue = [1212, 46]"] ;
23 -> 24 ;
25 [label="X[0] <= 278.5\ngini = 0.32\nsamples = 15\nvalue = [12, 3]"] ;
24 -> 25 ;
26 [label="gini = 0.0\nsamples = 1\nvalue = [0, 1]"] ;
25 -> 26 ;
27 [label="X[10] <= 18.0\ngini = 0.245\nsamples = 14\nvalue = [12, 2]"] ;
25 -> 27 ;
28 [label="gini = 0.375\nsamples = 8\nvalue = [6, 2]"] ;
27 -> 28 ;
29 [label="gini = 0.0\nsamples = 6\nvalue = [6, 0]"] ;
27 -> 29 ;
30 [label="X[8] <= 466.5\ngini = 0.067\nsamples = 1243\nvalue = [1200, 43]"] ;
24 -> 30 ;
31 [label="X[6] <= 189.5\ngini = 0.065\nsamples = 1240\nvalue = [1198, 42]"] ;
30 -> 31 ;
32 [label="X[12] <= 14.5\ngini = 0.05\nsamples = 905\nvalue = [882, 23]"] ;
31 -> 32 ;
33 [label="X[0] <= 1917.0\ngini = 0.066\nsamples = 678\nvalue = [655, 23]"] ;
32 -> 33 ;
34 [label="X[12] <= 10.5\ngini = 0.058\nsamples = 669\nvalue = [649, 20]"] ;
33 -> 34 ;
35 [label="X[19] <= 38.5\ngini = 0.05\nsamples = 657\nvalue = [640, 17]"] ;
34 -> 35 ;
36 [label="X[13] <= 45.0\ngini = 0.04\nsamples = 591\nvalue = [579, 12]"] ;
35 -> 36 ;
37 [label="X[16] <= 1028.5\ngini = 0.032\nsamples = 559\nvalue = [550, 9]"] ;
36 -> 37 ;
38 [label="X[0] <= 1553.0\ngini = 0.029\nsamples = 553\nvalue = [545, 8]"] ;
37 -> 38 ;
39 [label="X[25] <= 1091.5\ngini = 0.02\nsamples = 494\nvalue = [489, 5]"] ;
38 -> 39 ;
40 [label="X[12] <= 0.5\ngini = 0.017\nsamples = 480\nvalue = [476, 4]"] ;
39 -> 40 ;
41 [label="X[33] <= 13613.5\ngini = 0.009\nsamples = 424\nvalue = [422, 2]"] ;
40 -> 41 ;
42 [label="X[8] <= 113.5\ngini = 0.005\nsamples = 408\nvalue = [407, 1]"] ;
41 -> 42 ;
43 [label="gini = 0.0\nsamples = 383\nvalue = [383, 0]"] ;
42 -> 43 ;
44 [label="X[8] <= 135.0\ngini = 0.077\nsamples = 25\nvalue = [24, 1]"] ;
42 -> 44 ;
45 [label="gini = 0.32\nsamples = 5\nvalue = [4, 1]"] ;
44 -> 45 ;
46 [label="gini = 0.0\nsamples = 20\nvalue = [20, 0]"] ;
44 -> 46 ;
47 [label="X[33] <= 13900.5\ngini = 0.117\nsamples = 16\nvalue = [15, 1]"] ;
41 -> 47 ;
48 [label="gini = 0.142\nsamples = 13\nvalue = [12, 1]"] ;
47 -> 48 ;
49 [label="gini = 0.0\nsamples = 3\nvalue = [3, 0]"] ;
47 -> 49 ;
50 [label="X[0] <= 770.5\ngini = 0.069\nsamples = 56\nvalue = [54, 2]"] ;
40 -> 50 ;
51 [label="X[13] <= 16.0\ngini = 0.208\nsamples = 17\nvalue = [15, 2]"] ;
50 -> 51 ;
52 [label="X[22] <= 1954.5\ngini = 0.117\nsamples = 16\nvalue = [15, 1]"] ;
51 -> 52 ;
53 [label="gini = 0.0\nsamples = 5\nvalue = [5, 0]"] ;
52 -> 53 ;
54 [label="gini = 0.165\nsamples = 11\nvalue = [10, 1]"] ;
52 -> 54 ;
55 [label="gini = 0.0\nsamples = 1\nvalue = [0, 1]"] ;
51 -> 55 ;
56 [label="gini = 0.0\nsamples = 39\nvalue = [39, 0]"] ;
50 -> 56 ;
57 [label="gini = 0.133\nsamples = 14\nvalue = [13, 1]"] ;
39 -> 57 ;
58 [label="X[6] <= 22.0\ngini = 0.097\nsamples = 59\nvalue = [56, 3]"] ;
38 -> 58 ;
59 [label="gini = 0.0\nsamples = 21\nvalue = [21, 0]"] ;
58 -> 59 ;
60 [label="X[10] <= 710.5\ngini = 0.145\nsamples = 38\nvalue = [35, 3]"] ;
58 -> 60 ;
61 [label="X[7] <= 877.0\ngini = 0.175\nsamples = 31\nvalue = [28, 3]"] ;
60 -> 61 ;
62 [label="X[3] <= 1751.0\ngini = 0.185\nsamples = 29\nvalue = [26, 3]"] ;
61 -> 62 ;
63 [label="X[3] <= 1384.0\ngini = 0.208\nsamples = 17\nvalue = [15, 2]"] ;
62 -> 63 ;
64 [label="gini = 0.219\nsamples = 8\nvalue = [7, 1]"] ;
63 -> 64 ;
65 [label="gini = 0.198\nsamples = 9\nvalue = [8, 1]"] ;
63 -> 65 ;
66 [label="gini = 0.153\nsamples = 12\nvalue = [11, 1]"] ;
62 -> 66 ;
67 [label="gini = 0.0\nsamples = 2\nvalue = [2, 0]"] ;
61 -> 67 ;
68 [label="gini = 0.0\nsamples = 7\nvalue = [7, 0]"] ;
60 -> 68 ;
69 [label="gini = 0.278\nsamples = 6\nvalue = [5, 1]"] ;
37 -> 69 ;
70 [label="X[10] <= 272.5\ngini = 0.17\nsamples = 32\nvalue = [29, 3]"] ;
36 -> 70 ;
71 [label="gini = 0.5\nsamples = 2\nvalue = [1, 1]"] ;
70 -> 71 ;
72 [label="X[10] <= 603.0\ngini = 0.124\nsamples = 30\nvalue = [28, 2]"] ;
70 -> 72 ;
73 [label="gini = 0.0\nsamples = 10\nvalue = [10, 0]"] ;
72 -> 73 ;
74 [label="X[4] <= 172.5\ngini = 0.18\nsamples = 20\nvalue = [18, 2]"] ;
72 -> 74 ;
75 [label="gini = 0.245\nsamples = 7\nvalue = [6, 1]"] ;
74 -> 75 ;
76 [label="gini = 0.142\nsamples = 13\nvalue = [12, 1]"] ;
74 -> 76 ;
77 [label="X[31] <= 36.0\ngini = 0.14\nsamples = 66\nvalue = [61, 5]"] ;
35 -> 77 ;
78 [label="X[30] <= 81.0\ngini = 0.444\nsamples = 3\nvalue = [1, 2]"] ;
77 -> 78 ;
79 [label="gini = 0.5\nsamples = 2\nvalue = [1, 1]"] ;
78 -> 79 ;
80 [label="gini = 0.0\nsamples = 1\nvalue = [0, 1]"] ;
78 -> 80 ;
81 [label="X[24] <= 373.0\ngini = 0.091\nsamples = 63\nvalue = [60, 3]"] ;
77 -> 81 ;
82 [label="X[1] <= 1134.0\ngini = 0.063\nsamples = 61\nvalue = [59, 2]"] ;
81 -> 82 ;
83 [label="gini = 0.0\nsamples = 39\nvalue = [39, 0]"] ;
82 -> 83 ;
84 [label="X[5] <= 5.5\ngini = 0.165\nsamples = 22\nvalue = [20, 2]"] ;
82 -> 84 ;
85 [label="gini = 0.133\nsamples = 14\nvalue = [13, 1]"] ;
84 -> 85 ;
86 [label="gini = 0.219\nsamples = 8\nvalue = [7, 1]"] ;
84 -> 86 ;
87 [label="gini = 0.5\nsamples = 2\nvalue = [1, 1]"] ;
81 -> 87 ;
88 [label="X[2] <= 377.0\ngini = 0.375\nsamples = 12\nvalue = [9, 3]"] ;
34 -> 88 ;
89 [label="gini = 0.0\nsamples = 2\nvalue = [0, 2]"] ;
88 -> 89 ;
90 [label="X[6] <= 158.0\ngini = 0.18\nsamples = 10\nvalue = [9, 1]"] ;
88 -> 90 ;
91 [label="gini = 0.0\nsamples = 9\nvalue = [9, 0]"] ;
90 -> 91 ;
92 [label="gini = 0.0\nsamples = 1\nvalue = [0, 1]"] ;
90 -> 92 ;
93 [label="gini = 0.444\nsamples = 9\nvalue = [6, 3]"] ;
33 -> 93 ;
94 [label="gini = 0.0\nsamples = 227\nvalue = [227, 0]"] ;
32 -> 94 ;
95 [label="X[12] <= 30.5\ngini = 0.107\nsamples = 335\nvalue = [316, 19]"] ;
31 -> 95 ;
96 [label="X[8] <= 47.5\ngini = 0.311\nsamples = 57\nvalue = [46, 11]"] ;
95 -> 96 ;
97 [label="X[12] <= 13.0\ngini = 0.43\nsamples = 32\nvalue = [22, 10]"] ;
96 -> 97 ;
98 [label="X[5] <= 45.5\ngini = 0.365\nsamples = 25\nvalue = [19, 6]"] ;
97 -> 98 ;
99 [label="X[7] <= 933.0\ngini = 0.42\nsamples = 20\nvalue = [14, 6]"] ;
98 -> 99 ;
100 [label="gini = 0.0\nsamples = 1\nvalue = [1, 0]"] ;
99 -> 100 ;
101 [label="X[2] <= 786.0\ngini = 0.432\nsamples = 19\nvalue = [13, 6]"] ;
99 -> 101 ;
102 [label="gini = 0.444\nsamples = 9\nvalue = [6, 3]"] ;
101 -> 102 ;
103 [label="gini = 0.42\nsamples = 10\nvalue = [7, 3]"] ;
101 -> 103 ;
104 [label="gini = 0.0\nsamples = 5\nvalue = [5, 0]"] ;
98 -> 104 ;
105 [label="X[6] <= 247.5\ngini = 0.49\nsamples = 7\nvalue = [3, 4]"] ;
97 -> 105 ;
106 [label="gini = 0.5\nsamples = 4\nvalue = [2, 2]"] ;
105 -> 106 ;
107 [label="gini = 0.444\nsamples = 3\nvalue = [1, 2]"] ;
105 -> 107 ;
108 [label="X[12] <= 9.5\ngini = 0.077\nsamples = 25\nvalue = [24, 1]"] ;
96 -> 108 ;
109 [label="gini = 0.18\nsamples = 10\nvalue = [9, 1]"] ;
108 -> 109 ;
110 [label="gini = 0.0\nsamples = 15\nvalue = [15, 0]"] ;
108 -> 110 ;
111 [label="X[3] <= 2043.0\ngini = 0.056\nsamples = 278\nvalue = [270, 8]"] ;
95 -> 111 ;
112 [label="gini = 0.0\nsamples = 147\nvalue = [147, 0]"] ;
111 -> 112 ;
113 [label="X[3] <= 2054.0\ngini = 0.115\nsamples = 131\nvalue = [123, 8]"] ;
111 -> 113 ;
114 [label="gini = 0.0\nsamples = 1\nvalue = [0, 1]"] ;
113 -> 114 ;
115 [label="X[0] <= 1784.0\ngini = 0.102\nsamples = 130\nvalue = [123, 7]"] ;
113 -> 115 ;
116 [label="gini = 0.0\nsamples = 1\nvalue = [0, 1]"] ;
115 -> 116 ;
117 [label="X[4] <= 324.5\ngini = 0.089\nsamples = 129\nvalue = [123, 6]"] ;
115 -> 117 ;
118 [label="X[12] <= 104.5\ngini = 0.444\nsamples = 6\nvalue = [4, 2]"] ;
117 -> 118 ;
119 [label="gini = 0.5\nsamples = 2\nvalue = [1, 1]"] ;
118 -> 119 ;
120 [label="gini = 0.375\nsamples = 4\nvalue = [3, 1]"] ;
118 -> 120 ;
121 [label="X[1] <= 6944.5\ngini = 0.063\nsamples = 123\nvalue = [119, 4]"] ;
117 -> 121 ;
122 [label="gini = 0.375\nsamples = 4\nvalue = [3, 1]"] ;
121 -> 122 ;
123 [label="X[13] <= 134.0\ngini = 0.049\nsamples = 119\nvalue = [116, 3]"] ;
121 -> 123 ;
124 [label="X[3] <= 2096.5\ngini = 0.034\nsamples = 115\nvalue = [113, 2]"] ;
123 -> 124 ;
125 [label="X[4] <= 390.0\ngini = 0.278\nsamples = 6\nvalue = [5, 1]"] ;
124 -> 125 ;
126 [label="gini = 0.32\nsamples = 5\nvalue = [4, 1]"] ;
125 -> 126 ;
127 [label="gini = 0.0\nsamples = 1\nvalue = [1, 0]"] ;
125 -> 127 ;
128 [label="X[5] <= 57.5\ngini = 0.018\nsamples = 109\nvalue = [108, 1]"] ;
124 -> 128 ;
129 [label="gini = 0.0\nsamples = 95\nvalue = [95, 0]"] ;
128 -> 129 ;
130 [label="X[0] <= 2197.5\ngini = 0.133\nsamples = 14\nvalue = [13, 1]"] ;
128 -> 130 ;
131 [label="gini = 0.0\nsamples = 1\nvalue = [1, 0]"] ;
130 -> 131 ;
132 [label="gini = 0.142\nsamples = 13\nvalue = [12, 1]"] ;
130 -> 132 ;
133 [label="X[10] <= 827.0\ngini = 0.375\nsamples = 4\nvalue = [3, 1]"] ;
123 -> 133 ;
134 [label="gini = 0.0\nsamples = 2\nvalue = [2, 0]"] ;
133 -> 134 ;
135 [label="gini = 0.5\nsamples = 2\nvalue = [1, 1]"] ;
133 -> 135 ;
136 [label="X[35] <= 31.0\ngini = 0.444\nsamples = 3\nvalue = [2, 1]"] ;
30 -> 136 ;
137 [label="gini = 0.0\nsamples = 1\nvalue = [1, 0]"] ;
136 -> 137 ;
138 [label="gini = 0.5\nsamples = 2\nvalue = [1, 1]"] ;
136 -> 138 ;
139 [label="X[4] <= 26.5\ngini = 0.213\nsamples = 66\nvalue = [58, 8]"] ;
23 -> 139 ;
140 [label="X[17] <= 327.5\ngini = 0.089\nsamples = 43\nvalue = [41, 2]"] ;
139 -> 140 ;
141 [label="X[18] <= 134.0\ngini = 0.208\nsamples = 17\nvalue = [15, 2]"] ;
140 -> 141 ;
142 [label="gini = 0.219\nsamples = 8\nvalue = [7, 1]"] ;
141 -> 142 ;
143 [label="gini = 0.198\nsamples = 9\nvalue = [8, 1]"] ;
141 -> 143 ;
144 [label="gini = 0.0\nsamples = 26\nvalue = [26, 0]"] ;
140 -> 144 ;
145 [label="X[15] <= 162.0\ngini = 0.386\nsamples = 23\nvalue = [17, 6]"] ;
139 -> 145 ;
146 [label="X[29] <= 6.5\ngini = 0.426\nsamples = 13\nvalue = [9, 4]"] ;
145 -> 146 ;
147 [label="gini = 0.444\nsamples = 3\nvalue = [2, 1]"] ;
146 -> 147 ;
148 [label="gini = 0.42\nsamples = 10\nvalue = [7, 3]"] ;
146 -> 148 ;
149 [label="gini = 0.32\nsamples = 10\nvalue = [8, 2]"] ;
145 -> 149 ;
150 [label="X[24] <= 230.0\ngini = 0.5\nsamples = 2\nvalue = [1, 1]"] ;
20 -> 150 ;
151 [label="gini = 0.0\nsamples = 1\nvalue = [1, 0]"] ;
150 -> 151 ;
152 [label="gini = 0.0\nsamples = 1\nvalue = [0, 1]"] ;
150 -> 152 ;
153 [label="gini = 0.0\nsamples = 1\nvalue = [0, 1]"] ;
9 -> 153 ;
154 [label="X[4] <= 127.0\ngini = 0.159\nsamples = 1069\nvalue = [976, 93]"] ;
8 -> 154 ;
155 [label="X[8] <= 238.5\ngini = 0.444\nsamples = 3\nvalue = [1, 2]"] ;
154 -> 155 ;
156 [label="gini = 0.0\nsamples = 1\nvalue = [0, 1]"] ;
155 -> 156 ;
157 [label="gini = 0.5\nsamples = 2\nvalue = [1, 1]"] ;
155 -> 157 ;
158 [label="X[3] <= 3007.0\ngini = 0.156\nsamples = 1066\nvalue = [975, 91]"] ;
154 -> 158 ;
159 [label="X[1] <= 10442.0\ngini = 0.155\nsamples = 1065\nvalue = [975, 90]"] ;
158 -> 159 ;
160 [label="X[4] <= 329.5\ngini = 0.153\nsamples = 1064\nvalue = [975, 89]"] ;
159 -> 160 ;
161 [label="X[22] <= 17.5\ngini = 0.105\nsamples = 467\nvalue = [441, 26]"] ;
160 -> 161 ;
162 [label="X[10] <= 659.0\ngini = 0.095\nsamples = 458\nvalue = [435, 23]"] ;
161 -> 162 ;
163 [label="X[10] <= 650.5\ngini = 0.133\nsamples = 279\nvalue = [259, 20]"] ;
162 -> 163 ;
164 [label="X[10] <= 346.0\ngini = 0.12\nsamples = 266\nvalue = [249, 17]"] ;
163 -> 164 ;
165 [label="gini = 0.0\nsamples = 49\nvalue = [49, 0]"] ;
164 -> 165 ;
166 [label="X[9] <= 4.5\ngini = 0.144\nsamples = 217\nvalue = [200, 17]"] ;
164 -> 166 ;
167 [label="X[5] <= 141.0\ngini = 0.245\nsamples = 56\nvalue = [48, 8]"] ;
166 -> 167 ;
168 [label="X[2] <= 766.0\ngini = 0.226\nsamples = 54\nvalue = [47, 7]"] ;
167 -> 168 ;
169 [label="X[34] <= 0.0\ngini = 0.1\nsamples = 19\nvalue = [18, 1]"] ;
168 -> 169 ;
170 [label="gini = 0.0\nsamples = 8\nvalue = [8, 0]"] ;
169 -> 170 ;
171 [label="gini = 0.165\nsamples = 11\nvalue = [10, 1]"] ;
169 -> 171 ;
172 [label="X[11] <= 298.0\ngini = 0.284\nsamples = 35\nvalue = [29, 6]"] ;
168 -> 172 ;
173 [label="X[10] <= 422.5\ngini = 0.251\nsamples = 34\nvalue = [29, 5]"] ;
172 -> 173 ;
174 [label="X[11] <= 133.0\ngini = 0.32\nsamples = 20\nvalue = [16, 4]"] ;
173 -> 174 ;
175 [label="gini = 0.32\nsamples = 5\nvalue = [4, 1]"] ;
174 -> 175 ;
176 [label="X[11] <= 161.0\ngini = 0.32\nsamples = 15\nvalue = [12, 3]"] ;
174 -> 176 ;
177 [label="gini = 0.32\nsamples = 5\nvalue = [4, 1]"] ;
176 -> 177 ;
178 [label="gini = 0.32\nsamples = 10\nvalue = [8, 2]"] ;
176 -> 178 ;
179 [label="X[3] <= 1516.0\ngini = 0.133\nsamples = 14\nvalue = [13, 1]"] ;
173 -> 179 ;
180 [label="gini = 0.278\nsamples = 6\nvalue = [5, 1]"] ;
179 -> 180 ;
181 [label="gini = 0.0\nsamples = 8\nvalue = [8, 0]"] ;
179 -> 181 ;
182 [label="gini = 0.0\nsamples = 1\nvalue = [0, 1]"] ;
172 -> 182 ;
183 [label="gini = 0.5\nsamples = 2\nvalue = [1, 1]"] ;
167 -> 183 ;
184 [label="X[1] <= 4781.5\ngini = 0.106\nsamples = 161\nvalue = [152, 9]"] ;
166 -> 184 ;
185 [label="X[5] <= 86.0\ngini = 0.183\nsamples = 49\nvalue = [44, 5]"] ;
184 -> 185 ;
186 [label="X[3] <= 1274.5\ngini = 0.095\nsamples = 20\nvalue = [19, 1]"] ;
185 -> 186 ;
187 [label="gini = 0.0\nsamples = 10\nvalue = [10, 0]"] ;
186 -> 187 ;
188 [label="gini = 0.18\nsamples = 10\nvalue = [9, 1]"] ;
186 -> 188 ;
189 [label="X[13] <= 25.5\ngini = 0.238\nsamples = 29\nvalue = [25, 4]"] ;
185 -> 189 ;
190 [label="gini = 0.32\nsamples = 5\nvalue = [4, 1]"] ;
189 -> 190 ;
191 [label="X[4] <= 209.0\ngini = 0.219\nsamples = 24\nvalue = [21, 3]"] ;
189 -> 191 ;
192 [label="gini = 0.219\nsamples = 8\nvalue = [7, 1]"] ;
191 -> 192 ;
193 [label="gini = 0.219\nsamples = 16\nvalue = [14, 2]"] ;
191 -> 193 ;
194 [label="X[6] <= 95.0\ngini = 0.069\nsamples = 112\nvalue = [108, 4]"] ;
184 -> 194 ;
195 [label="gini = 0.0\nsamples = 56\nvalue = [56, 0]"] ;
194 -> 195 ;
196 [label="X[9] <= 30.5\ngini = 0.133\nsamples = 56\nvalue = [52, 4]"] ;
194 -> 196 ;
197 [label="X[13] <= 63.0\ngini = 0.15\nsamples = 49\nvalue = [45, 4]"] ;
196 -> 197 ;
198 [label="X[13] <= 27.0\ngini = 0.156\nsamples = 47\nvalue = [43, 4]"] ;
197 -> 198 ;
199 [label="X[8] <= 49.0\ngini = 0.147\nsamples = 25\nvalue = [23, 2]"] ;
198 -> 199 ;
200 [label="gini = 0.142\nsamples = 13\nvalue = [12, 1]"] ;
199 -> 200 ;
201 [label="gini = 0.153\nsamples = 12\nvalue = [11, 1]"] ;
199 -> 201 ;
202 [label="X[12] <= 11.5\ngini = 0.165\nsamples = 22\nvalue = [20, 2]"] ;
198 -> 202 ;
203 [label="gini = 0.165\nsamples = 11\nvalue = [10, 1]"] ;
202 -> 203 ;
204 [label="gini = 0.165\nsamples = 11\nvalue = [10, 1]"] ;
202 -> 204 ;
205 [label="gini = 0.0\nsamples = 2\nvalue = [2, 0]"] ;
197 -> 205 ;
206 [label="gini = 0.0\nsamples = 7\nvalue = [7, 0]"] ;
196 -> 206 ;
207 [label="gini = 0.355\nsamples = 13\nvalue = [10, 3]"] ;
163 -> 207 ;
208 [label="X[3] <= 2474.5\ngini = 0.033\nsamples = 179\nvalue = [176, 3]"] ;
162 -> 208 ;
209 [label="X[13] <= 23.5\ngini = 0.024\nsamples = 167\nvalue = [165, 2]"] ;
208 -> 209 ;
210 [label="X[7] <= 611.5\ngini = 0.049\nsamples = 79\nvalue = [77, 2]"] ;
209 -> 210 ;
211 [label="X[4] <= 287.0\ngini = 0.142\nsamples = 13\nvalue = [12, 1]"] ;
210 -> 211 ;
212 [label="gini = 0.0\nsamples = 1\nvalue = [1, 0]"] ;
211 -> 212 ;
213 [label="gini = 0.153\nsamples = 12\nvalue = [11, 1]"] ;
211 -> 213 ;
214 [label="X[5] <= 67.5\ngini = 0.03\nsamples = 66\nvalue = [65, 1]"] ;
210 -> 214 ;
215 [label="gini = 0.133\nsamples = 14\nvalue = [13, 1]"] ;
214 -> 215 ;
216 [label="gini = 0.0\nsamples = 52\nvalue = [52, 0]"] ;
214 -> 216 ;
217 [label="gini = 0.0\nsamples = 88\nvalue = [88, 0]"] ;
209 -> 217 ;
218 [label="gini = 0.153\nsamples = 12\nvalue = [11, 1]"] ;
208 -> 218 ;
219 [label="X[5] <= 83.5\ngini = 0.444\nsamples = 9\nvalue = [6, 3]"] ;
161 -> 219 ;
220 [label="X[1] <= 4301.0\ngini = 0.32\nsamples = 5\nvalue = [4, 1]"] ;
219 -> 220 ;
221 [label="gini = 0.0\nsamples = 1\nvalue = [1, 0]"] ;
220 -> 221 ;
222 [label="gini = 0.375\nsamples = 4\nvalue = [3, 1]"] ;
220 -> 222 ;
223 [label="X[1] <= 5993.5\ngini = 0.5\nsamples = 4\nvalue = [2, 2]"] ;
219 -> 223 ;
224 [label="gini = 0.5\nsamples = 2\nvalue = [1, 1]"] ;
223 -> 224 ;
225 [label="gini = 0.5\nsamples = 2\nvalue = [1, 1]"] ;
223 -> 225 ;
226 [label="X[10] <= 696.5\ngini = 0.189\nsamples = 597\nvalue = [534, 63]"] ;
160 -> 226 ;
227 [label="X[20] <= 1.5\ngini = 0.118\nsamples = 255\nvalue = [239, 16]"] ;
226 -> 227 ;
228 [label="X[9] <= 43.5\ngini = 0.112\nsamples = 252\nvalue = [237, 15]"] ;
227 -> 228 ;
229 [label="X[5] <= 158.5\ngini = 0.152\nsamples = 145\nvalue = [133, 12]"] ;
228 -> 229 ;
230 [label="X[6] <= 79.5\ngini = 0.142\nsamples = 143\nvalue = [132, 11]"] ;
229 -> 230 ;
231 [label="gini = 0.0\nsamples = 15\nvalue = [15, 0]"] ;
230 -> 231 ;
232 [label="X[8] <= 43.5\ngini = 0.157\nsamples = 128\nvalue = [117, 11]"] ;
230 -> 232 ;
233 [label="X[0] <= 1886.5\ngini = 0.26\nsamples = 13\nvalue = [11, 2]"] ;
232 -> 233 ;
234 [label="gini = 0.245\nsamples = 7\nvalue = [6, 1]"] ;
233 -> 234 ;
235 [label="gini = 0.278\nsamples = 6\nvalue = [5, 1]"] ;
233 -> 235 ;
236 [label="X[8] <= 91.5\ngini = 0.144\nsamples = 115\nvalue = [106, 9]"] ;
232 -> 236 ;
237 [label="X[22] <= 2.5\ngini = 0.16\nsamples = 91\nvalue = [83, 8]"] ;
236 -> 237 ;
238 [label="X[9] <= 17.0\ngini = 0.153\nsamples = 84\nvalue = [77, 7]"] ;
237 -> 238 ;
239 [label="X[7] <= 1139.5\ngini = 0.172\nsamples = 42\nvalue = [38, 4]"] ;
238 -> 239 ;
240 [label="X[3] <= 1829.5\ngini = 0.153\nsamples = 24\nvalue = [22, 2]"] ;
239 -> 240 ;
241 [label="gini = 0.153\nsamples = 12\nvalue = [11, 1]"] ;
240 -> 241 ;
242 [label="gini = 0.153\nsamples = 12\nvalue = [11, 1]"] ;
240 -> 242 ;
243 [label="X[11] <= 556.0\ngini = 0.198\nsamples = 18\nvalue = [16, 2]"] ;
239 -> 243 ;
244 [label="gini = 0.198\nsamples = 9\nvalue = [8, 1]"] ;
243 -> 244 ;
245 [label="gini = 0.198\nsamples = 9\nvalue = [8, 1]"] ;
243 -> 245 ;
246 [label="X[5] <= 70.5\ngini = 0.133\nsamples = 42\nvalue = [39, 3]"] ;
238 -> 246 ;
247 [label="gini = 0.0\nsamples = 1\nvalue = [1, 0]"] ;
246 -> 247 ;
248 [label="X[20] <= -0.5\ngini = 0.136\nsamples = 41\nvalue = [38, 3]"] ;
246 -> 248 ;
249 [label="X[1] <= 8352.0\ngini = 0.142\nsamples = 26\nvalue = [24, 2]"] ;
248 -> 249 ;
250 [label="gini = 0.142\nsamples = 13\nvalue = [12, 1]"] ;
249 -> 250 ;
251 [label="gini = 0.142\nsamples = 13\nvalue = [12, 1]"] ;
249 -> 251 ;
252 [label="gini = 0.124\nsamples = 15\nvalue = [14, 1]"] ;
248 -> 252 ;
253 [label="gini = 0.245\nsamples = 7\nvalue = [6, 1]"] ;
237 -> 253 ;
254 [label="X[0] <= 1876.5\ngini = 0.08\nsamples = 24\nvalue = [23, 1]"] ;
236 -> 254 ;
255 [label="gini = 0.0\nsamples = 15\nvalue = [15, 0]"] ;
254 -> 255 ;
256 [label="gini = 0.198\nsamples = 9\nvalue = [8, 1]"] ;
254 -> 256 ;
257 [label="X[16] <= 1.5\ngini = 0.5\nsamples = 2\nvalue = [1, 1]"] ;
229 -> 257 ;
258 [label="gini = 0.0\nsamples = 1\nvalue = [0, 1]"] ;
257 -> 258 ;
259 [label="gini = 0.0\nsamples = 1\nvalue = [1, 0]"] ;
257 -> 259 ;
260 [label="X[4] <= 488.0\ngini = 0.055\nsamples = 107\nvalue = [104, 3]"] ;
228 -> 260 ;
261 [label="X[5] <= 177.0\ngini = 0.024\nsamples = 82\nvalue = [81, 1]"] ;
260 -> 261 ;
262 [label="gini = 0.0\nsamples = 67\nvalue = [67, 0]"] ;
261 -> 262 ;
263 [label="gini = 0.124\nsamples = 15\nvalue = [14, 1]"] ;
261 -> 263 ;
264 [label="X[13] <= 63.0\ngini = 0.147\nsamples = 25\nvalue = [23, 2]"] ;
260 -> 264 ;
265 [label="gini = 0.0\nsamples = 11\nvalue = [11, 0]"] ;
264 -> 265 ;
266 [label="X[8] <= 214.0\ngini = 0.245\nsamples = 14\nvalue = [12, 2]"] ;
264 -> 266 ;
267 [label="gini = 0.32\nsamples = 5\nvalue = [4, 1]"] ;
266 -> 267 ;
268 [label="gini = 0.198\nsamples = 9\nvalue = [8, 1]"] ;
266 -> 268 ;
269 [label="gini = 0.444\nsamples = 3\nvalue = [2, 1]"] ;
227 -> 269 ;
270 [label="X[13] <= 87.0\ngini = 0.237\nsamples = 342\nvalue = [295, 47]"] ;
226 -> 270 ;
271 [label="X[8] <= 543.0\ngini = 0.266\nsamples = 291\nvalue = [245, 46]"] ;
270 -> 271 ;
272 [label="X[9] <= 78.0\ngini = 0.262\nsamples = 290\nvalue = [245, 45]"] ;
271 -> 272 ;
273 [label="X[12] <= 7.0\ngini = 0.299\nsamples = 202\nvalue = [165, 37]"] ;
272 -> 273 ;
274 [label="X[1] <= 7428.5\ngini = 0.331\nsamples = 148\nvalue = [117, 31]"] ;
273 -> 274 ;
275 [label="X[10] <= 952.0\ngini = 0.3\nsamples = 109\nvalue = [89, 20]"] ;
274 -> 275 ;
276 [label="X[5] <= 162.5\ngini = 0.325\nsamples = 98\nvalue = [78, 20]"] ;
275 -> 276 ;
277 [label="X[6] <= 284.5\ngini = 0.317\nsamples = 96\nvalue = [77, 19]"] ;
276 -> 277 ;
278 [label="X[13] <= 33.5\ngini = 0.293\nsamples = 73\nvalue = [60, 13]"] ;
277 -> 278 ;
279 [label="X[9] <= 28.0\ngini = 0.252\nsamples = 27\nvalue = [23, 4]"] ;
278 -> 279 ;
280 [label="gini = 0.0\nsamples = 3\nvalue = [3, 0]"] ;
279 -> 280 ;
281 [label="X[8] <= 67.0\ngini = 0.278\nsamples = 24\nvalue = [20, 4]"] ;
279 -> 281 ;
282 [label="X[6] <= 171.0\ngini = 0.305\nsamples = 16\nvalue = [13, 3]"] ;
281 -> 282 ;
283 [label="gini = 0.32\nsamples = 5\nvalue = [4, 1]"] ;
282 -> 283 ;
284 [label="gini = 0.298\nsamples = 11\nvalue = [9, 2]"] ;
282 -> 284 ;
285 [label="gini = 0.219\nsamples = 8\nvalue = [7, 1]"] ;
281 -> 285 ;
286 [label="X[1] <= 6688.0\ngini = 0.315\nsamples = 46\nvalue = [37, 9]"] ;
278 -> 286 ;
287 [label="X[2] <= 864.0\ngini = 0.328\nsamples = 29\nvalue = [23, 6]"] ;
286 -> 287 ;
288 [label="gini = 0.346\nsamples = 9\nvalue = [7, 2]"] ;
287 -> 288 ;
289 [label="X[0] <= 1903.5\ngini = 0.32\nsamples = 20\nvalue = [16, 4]"] ;
287 -> 289 ;
290 [label="gini = 0.32\nsamples = 10\nvalue = [8, 2]"] ;
289 -> 290 ;
291 [label="gini = 0.32\nsamples = 10\nvalue = [8, 2]"] ;
289 -> 291 ;
292 [label="X[3] <= 2101.5\ngini = 0.291\nsamples = 17\nvalue = [14, 3]"] ;
286 -> 292 ;
293 [label="gini = 0.298\nsamples = 11\nvalue = [9, 2]"] ;
292 -> 293 ;
294 [label="gini = 0.278\nsamples = 6\nvalue = [5, 1]"] ;
292 -> 294 ;
295 [label="X[5] <= 77.0\ngini = 0.386\nsamples = 23\nvalue = [17, 6]"] ;
277 -> 295 ;
296 [label="gini = 0.408\nsamples = 7\nvalue = [5, 2]"] ;
295 -> 296 ;
297 [label="X[9] <= 5.0\ngini = 0.375\nsamples = 16\nvalue = [12, 4]"] ;
295 -> 297 ;
298 [label="gini = 0.375\nsamples = 12\nvalue = [9, 3]"] ;
297 -> 298 ;
299 [label="gini = 0.375\nsamples = 4\nvalue = [3, 1]"] ;
297 -> 299 ;
300 [label="gini = 0.5\nsamples = 2\nvalue = [1, 1]"] ;
276 -> 300 ;
301 [label="gini = 0.0\nsamples = 11\nvalue = [11, 0]"] ;
275 -> 301 ;
302 [label="X[1] <= 8338.0\ngini = 0.405\nsamples = 39\nvalue = [28, 11]"] ;
274 -> 302 ;
303 [label="X[11] <= 489.0\ngini = 0.42\nsamples = 30\nvalue = [21, 9]"] ;
302 -> 303 ;
304 [label="gini = 0.444\nsamples = 6\nvalue = [4, 2]"] ;
303 -> 304 ;
305 [label="X[7] <= 1154.5\ngini = 0.413\nsamples = 24\nvalue = [17, 7]"] ;
303 -> 305 ;
306 [label="gini = 0.42\nsamples = 10\nvalue = [7, 3]"] ;
305 -> 306 ;
307 [label="X[2] <= 1262.0\ngini = 0.408\nsamples = 14\nvalue = [10, 4]"] ;
305 -> 307 ;
308 [label="gini = 0.408\nsamples = 7\nvalue = [5, 2]"] ;
307 -> 308 ;
309 [label="gini = 0.408\nsamples = 7\nvalue = [5, 2]"] ;
307 -> 309 ;
310 [label="X[35] <= 133.5\ngini = 0.346\nsamples = 9\nvalue = [7, 2]"] ;
302 -> 310 ;
311 [label="gini = 0.32\nsamples = 5\nvalue = [4, 1]"] ;
310 -> 311 ;
312 [label="gini = 0.375\nsamples = 4\nvalue = [3, 1]"] ;
310 -> 312 ;
313 [label="X[8] <= 239.0\ngini = 0.198\nsamples = 54\nvalue = [48, 6]"] ;
273 -> 313 ;
314 [label="X[9] <= 53.5\ngini = 0.177\nsamples = 51\nvalue = [46, 5]"] ;
313 -> 314 ;
315 [label="X[4] <= 423.5\ngini = 0.194\nsamples = 46\nvalue = [41, 5]"] ;
314 -> 315 ;
316 [label="X[1] <= 7553.5\ngini = 0.17\nsamples = 32\nvalue = [29, 3]"] ;
315 -> 316 ;
317 [label="gini = 0.198\nsamples = 9\nvalue = [8, 1]"] ;
316 -> 317 ;
318 [label="X[4] <= 389.0\ngini = 0.159\nsamples = 23\nvalue = [21, 2]"] ;
316 -> 318 ;
319 [label="gini = 0.153\nsamples = 12\nvalue = [11, 1]"] ;
318 -> 319 ;
320 [label="gini = 0.165\nsamples = 11\nvalue = [10, 1]"] ;
318 -> 320 ;
321 [label="X[5] <= 83.5\ngini = 0.245\nsamples = 14\nvalue = [12, 2]"] ;
315 -> 321 ;
322 [label="gini = 0.219\nsamples = 8\nvalue = [7, 1]"] ;
321 -> 322 ;
323 [label="gini = 0.278\nsamples = 6\nvalue = [5, 1]"] ;
321 -> 323 ;
324 [label="gini = 0.0\nsamples = 5\nvalue = [5, 0]"] ;
314 -> 324 ;
325 [label="gini = 0.444\nsamples = 3\nvalue = [2, 1]"] ;
313 -> 325 ;
326 [label="X[2] <= 1254.0\ngini = 0.165\nsamples = 88\nvalue = [80, 8]"] ;
272 -> 326 ;
327 [label="X[4] <= 341.0\ngini = 0.038\nsamples = 51\nvalue = [50, 1]"] ;
326 -> 327 ;
328 [label="gini = 0.165\nsamples = 11\nvalue = [10, 1]"] ;
327 -> 328 ;
329 [label="gini = 0.0\nsamples = 40\nvalue = [40, 0]"] ;
327 -> 329 ;
330 [label="X[1] <= 8520.5\ngini = 0.307\nsamples = 37\nvalue = [30, 7]"] ;
326 -> 330 ;
331 [label="gini = 0.5\nsamples = 2\nvalue = [1, 1]"] ;
330 -> 331 ;
332 [label="X[7] <= 1000.0\ngini = 0.284\nsamples = 35\nvalue = [29, 6]"] ;
330 -> 332 ;
333 [label="X[28] <= -0.5\ngini = 0.346\nsamples = 18\nvalue = [14, 4]"] ;
332 -> 333 ;
334 [label="X[6] <= 55.5\ngini = 0.337\nsamples = 14\nvalue = [11, 3]"] ;
333 -> 334 ;
335 [label="gini = 0.346\nsamples = 9\nvalue = [7, 2]"] ;
334 -> 335 ;
336 [label="gini = 0.32\nsamples = 5\nvalue = [4, 1]"] ;
334 -> 336 ;
337 [label="gini = 0.375\nsamples = 4\nvalue = [3, 1]"] ;
333 -> 337 ;
338 [label="X[14] <= -0.5\ngini = 0.208\nsamples = 17\nvalue = [15, 2]"] ;
332 -> 338 ;
339 [label="X[11] <= 556.5\ngini = 0.219\nsamples = 16\nvalue = [14, 2]"] ;
338 -> 339 ;
340 [label="gini = 0.245\nsamples = 7\nvalue = [6, 1]"] ;
339 -> 340 ;
341 [label="gini = 0.198\nsamples = 9\nvalue = [8, 1]"] ;
339 -> 341 ;
342 [label="gini = 0.0\nsamples = 1\nvalue = [1, 0]"] ;
338 -> 342 ;
343 [label="gini = 0.0\nsamples = 1\nvalue = [0, 1]"] ;
271 -> 343 ;
344 [label="X[1] <= 9194.5\ngini = 0.038\nsamples = 51\nvalue = [50, 1]"] ;
270 -> 344 ;
345 [label="gini = 0.0\nsamples = 40\nvalue = [40, 0]"] ;
344 -> 345 ;
346 [label="gini = 0.165\nsamples = 11\nvalue = [10, 1]"] ;
344 -> 346 ;
347 [label="gini = 0.0\nsamples = 1\nvalue = [0, 1]"] ;
159 -> 347 ;
348 [label="gini = 0.0\nsamples = 1\nvalue = [0, 1]"] ;
158 -> 348 ;
349 [label="X[26] <= 1601.5\ngini = 0.229\nsamples = 273\nvalue = [237, 36]"] ;
7 -> 349 ;
350 [label="X[16] <= 242.5\ngini = 0.164\nsamples = 177\nvalue = [161, 16]"] ;
349 -> 350 ;
351 [label="gini = 0.5\nsamples = 2\nvalue = [1, 1]"] ;
350 -> 351 ;
352 [label="X[24] <= 207.5\ngini = 0.157\nsamples = 175\nvalue = [160, 15]"] ;
350 -> 352 ;
353 [label="X[15] <= 162.5\ngini = 0.143\nsamples = 168\nvalue = [155, 13]"] ;
352 -> 353 ;
354 [label="X[17] <= 329.5\ngini = 0.193\nsamples = 83\nvalue = [74, 9]"] ;
353 -> 354 ;
355 [label="X[22] <= 1902.0\ngini = 0.067\nsamples = 29\nvalue = [28, 1]"] ;
354 -> 355 ;
356 [label="gini = 0.278\nsamples = 6\nvalue = [5, 1]"] ;
355 -> 356 ;
357 [label="gini = 0.0\nsamples = 23\nvalue = [23, 0]"] ;
355 -> 357 ;
358 [label="X[31] <= 82.5\ngini = 0.252\nsamples = 54\nvalue = [46, 8]"] ;
354 -> 358 ;
359 [label="X[20] <= 15.5\ngini = 0.21\nsamples = 42\nvalue = [37, 5]"] ;
358 -> 359 ;
360 [label="X[2] <= 151.5\ngini = 0.172\nsamples = 21\nvalue = [19, 2]"] ;
359 -> 360 ;
361 [label="gini = 0.198\nsamples = 9\nvalue = [8, 1]"] ;
360 -> 361 ;
362 [label="gini = 0.153\nsamples = 12\nvalue = [11, 1]"] ;
360 -> 362 ;
363 [label="X[9] <= 0.5\ngini = 0.245\nsamples = 21\nvalue = [18, 3]"] ;
359 -> 363 ;
364 [label="X[17] <= 376.0\ngini = 0.231\nsamples = 15\nvalue = [13, 2]"] ;
363 -> 364 ;
365 [label="gini = 0.245\nsamples = 7\nvalue = [6, 1]"] ;
364 -> 365 ;
366 [label="gini = 0.219\nsamples = 8\nvalue = [7, 1]"] ;
364 -> 366 ;
367 [label="gini = 0.278\nsamples = 6\nvalue = [5, 1]"] ;
363 -> 367 ;
368 [label="X[32] <= 2.5\ngini = 0.375\nsamples = 12\nvalue = [9, 3]"] ;
358 -> 368 ;
369 [label="gini = 0.444\nsamples = 3\nvalue = [2, 1]"] ;
368 -> 369 ;
370 [label="X[32] <= 3.5\ngini = 0.346\nsamples = 9\nvalue = [7, 2]"] ;
368 -> 370 ;
371 [label="gini = 0.375\nsamples = 4\nvalue = [3, 1]"] ;
370 -> 371 ;
372 [label="gini = 0.32\nsamples = 5\nvalue = [4, 1]"] ;
370 -> 372 ;
373 [label="X[14] <= 235.5\ngini = 0.09\nsamples = 85\nvalue = [81, 4]"] ;
353 -> 373 ;
374 [label="gini = 0.0\nsamples = 31\nvalue = [31, 0]"] ;
373 -> 374 ;
375 [label="X[2] <= 92.5\ngini = 0.137\nsamples = 54\nvalue = [50, 4]"] ;
373 -> 375 ;
376 [label="gini = 0.0\nsamples = 3\nvalue = [3, 0]"] ;
375 -> 376 ;
377 [label="X[35] <= 2017.0\ngini = 0.145\nsamples = 51\nvalue = [47, 4]"] ;
375 -> 377 ;
378 [label="X[1] <= 1278.0\ngini = 0.136\nsamples = 41\nvalue = [38, 3]"] ;
377 -> 378 ;
379 [label="gini = 0.124\nsamples = 15\nvalue = [14, 1]"] ;
378 -> 379 ;
380 [label="X[35] <= 1883.0\ngini = 0.142\nsamples = 26\nvalue = [24, 2]"] ;
378 -> 380 ;
381 [label="gini = 0.142\nsamples = 13\nvalue = [12, 1]"] ;
380 -> 381 ;
382 [label="gini = 0.142\nsamples = 13\nvalue = [12, 1]"] ;
380 -> 382 ;
383 [label="gini = 0.18\nsamples = 10\nvalue = [9, 1]"] ;
377 -> 383 ;
384 [label="gini = 0.408\nsamples = 7\nvalue = [5, 2]"] ;
352 -> 384 ;
385 [label="X[18] <= 211.5\ngini = 0.33\nsamples = 96\nvalue = [76, 20]"] ;
349 -> 385 ;
386 [label="gini = 0.0\nsamples = 1\nvalue = [0, 1]"] ;
385 -> 386 ;
387 [label="X[31] <= 156.0\ngini = 0.32\nsamples = 95\nvalue = [76, 19]"] ;
385 -> 387 ;
388 [label="X[9] <= 0.5\ngini = 0.31\nsamples = 94\nvalue = [76, 18]"] ;
387 -> 388 ;
389 [label="X[16] <= 418.5\ngini = 0.208\nsamples = 51\nvalue = [45, 6]"] ;
388 -> 389 ;
390 [label="gini = 0.444\nsamples = 3\nvalue = [2, 1]"] ;
389 -> 390 ;
391 [label="X[31] <= 59.0\ngini = 0.187\nsamples = 48\nvalue = [43, 5]"] ;
389 -> 391 ;
392 [label="X[0] <= 511.0\ngini = 0.278\nsamples = 12\nvalue = [10, 2]"] ;
391 -> 392 ;
393 [label="X[4] <= 40.0\ngini = 0.298\nsamples = 11\nvalue = [9, 2]"] ;
392 -> 393 ;
394 [label="gini = 0.278\nsamples = 6\nvalue = [5, 1]"] ;
393 -> 394 ;
395 [label="gini = 0.32\nsamples = 5\nvalue = [4, 1]"] ;
393 -> 395 ;
396 [label="gini = 0.0\nsamples = 1\nvalue = [1, 0]"] ;
392 -> 396 ;
397 [label="X[14] <= 293.5\ngini = 0.153\nsamples = 36\nvalue = [33, 3]"] ;
391 -> 397 ;
398 [label="X[18] <= 248.5\ngini = 0.161\nsamples = 34\nvalue = [31, 3]"] ;
397 -> 398 ;
399 [label="X[35] <= 1637.5\ngini = 0.153\nsamples = 24\nvalue = [22, 2]"] ;
398 -> 399 ;
400 [label="gini = 0.153\nsamples = 12\nvalue = [11, 1]"] ;
399 -> 400 ;
401 [label="gini = 0.153\nsamples = 12\nvalue = [11, 1]"] ;
399 -> 401 ;
402 [label="gini = 0.18\nsamples = 10\nvalue = [9, 1]"] ;
398 -> 402 ;
403 [label="gini = 0.0\nsamples = 2\nvalue = [2, 0]"] ;
397 -> 403 ;
404 [label="X[32] <= 10.0\ngini = 0.402\nsamples = 43\nvalue = [31, 12]"] ;
388 -> 404 ;
405 [label="X[17] <= 572.5\ngini = 0.361\nsamples = 38\nvalue = [29, 9]"] ;
404 -> 405 ;
406 [label="X[31] <= 59.5\ngini = 0.375\nsamples = 36\nvalue = [27, 9]"] ;
405 -> 406 ;
407 [label="X[3] <= 201.5\ngini = 0.393\nsamples = 26\nvalue = [19, 7]"] ;
406 -> 407 ;
408 [label="gini = 0.42\nsamples = 10\nvalue = [7, 3]"] ;
407 -> 408 ;
409 [label="X[13] <= 4.0\ngini = 0.375\nsamples = 16\nvalue = [12, 4]"] ;
407 -> 409 ;
410 [label="gini = 0.375\nsamples = 4\nvalue = [3, 1]"] ;
409 -> 410 ;
411 [label="gini = 0.375\nsamples = 12\nvalue = [9, 3]"] ;
409 -> 411 ;
412 [label="gini = 0.32\nsamples = 10\nvalue = [8, 2]"] ;
406 -> 412 ;
413 [label="gini = 0.0\nsamples = 2\nvalue = [2, 0]"] ;
405 -> 413 ;
414 [label="X[7] <= 92.0\ngini = 0.48\nsamples = 5\nvalue = [2, 3]"] ;
404 -> 414 ;
415 [label="X[3] <= 175.0\ngini = 0.5\nsamples = 4\nvalue = [2, 2]"] ;
414 -> 415 ;
416 [label="gini = 0.5\nsamples = 2\nvalue = [1, 1]"] ;
415 -> 416 ;
417 [label="gini = 0.5\nsamples = 2\nvalue = [1, 1]"] ;
415 -> 417 ;
418 [label="gini = 0.0\nsamples = 1\nvalue = [0, 1]"] ;
414 -> 418 ;
419 [label="gini = 0.0\nsamples = 1\nvalue = [0, 1]"] ;
387 -> 419 ;
420 [label="gini = 0.0\nsamples = 4\nvalue = [0, 4]"] ;
6 -> 420 ;
421 [label="X[29] <= 109.0\ngini = 0.485\nsamples = 41\nvalue = [24, 17]"] ;
5 -> 421 ;
422 [label="X[22] <= 3940.5\ngini = 0.451\nsamples = 35\nvalue = [23, 12]"] ;
421 -> 422 ;
423 [label="gini = 0.0\nsamples = 2\nvalue = [0, 2]"] ;
422 -> 423 ;
424 [label="X[4] <= 62.0\ngini = 0.422\nsamples = 33\nvalue = [23, 10]"] ;
422 -> 424 ;
425 [label="X[23] <= 1153.5\ngini = 0.32\nsamples = 25\nvalue = [20, 5]"] ;
424 -> 425 ;
426 [label="gini = 0.0\nsamples = 1\nvalue = [0, 1]"] ;
425 -> 426 ;
427 [label="X[13] <= 5.0\ngini = 0.278\nsamples = 24\nvalue = [20, 4]"] ;
425 -> 427 ;
428 [label="gini = 0.0\nsamples = 7\nvalue = [7, 0]"] ;
427 -> 428 ;
429 [label="X[31] <= 62.0\ngini = 0.36\nsamples = 17\nvalue = [13, 4]"] ;
427 -> 429 ;
430 [label="gini = 0.0\nsamples = 1\nvalue = [1, 0]"] ;
429 -> 430 ;
431 [label="X[17] <= 736.0\ngini = 0.375\nsamples = 16\nvalue = [12, 4]"] ;
429 -> 431 ;
432 [label="X[35] <= 2407.0\ngini = 0.355\nsamples = 13\nvalue = [10, 3]"] ;
431 -> 432 ;
433 [label="X[34] <= 78.5\ngini = 0.375\nsamples = 8\nvalue = [6, 2]"] ;
432 -> 433 ;
434 [label="gini = 0.375\nsamples = 4\nvalue = [3, 1]"] ;
433 -> 434 ;
435 [label="gini = 0.375\nsamples = 4\nvalue = [3, 1]"] ;
433 -> 435 ;
436 [label="gini = 0.32\nsamples = 5\nvalue = [4, 1]"] ;
432 -> 436 ;
437 [label="gini = 0.444\nsamples = 3\nvalue = [2, 1]"] ;
431 -> 437 ;
438 [label="X[8] <= 19.5\ngini = 0.469\nsamples = 8\nvalue = [3, 5]"] ;
424 -> 438 ;
439 [label="gini = 0.0\nsamples = 2\nvalue = [0, 2]"] ;
438 -> 439 ;
440 [label="X[0] <= 599.5\ngini = 0.5\nsamples = 6\nvalue = [3, 3]"] ;
438 -> 440 ;
441 [label="gini = 0.5\nsamples = 2\nvalue = [1, 1]"] ;
440 -> 441 ;
442 [label="X[16] <= 717.0\ngini = 0.5\nsamples = 4\nvalue = [2, 2]"] ;
440 -> 442 ;
443 [label="gini = 0.5\nsamples = 2\nvalue = [1, 1]"] ;
442 -> 443 ;
444 [label="gini = 0.5\nsamples = 2\nvalue = [1, 1]"] ;
442 -> 444 ;
445 [label="X[5] <= 1.0\ngini = 0.278\nsamples = 6\nvalue = [1, 5]"] ;
421 -> 445 ;
446 [label="gini = 0.5\nsamples = 2\nvalue = [1, 1]"] ;
445 -> 446 ;
447 [label="gini = 0.0\nsamples = 4\nvalue = [0, 4]"] ;
445 -> 447 ;
448 [label="X[0] <= 2596.0\ngini = 0.443\nsamples = 157\nvalue = [105, 52]"] ;
4 -> 448 ;
449 [label="X[10] <= 1491.0\ngini = 0.383\nsamples = 120\nvalue = [89, 31]"] ;
448 -> 449 ;
450 [label="X[20] <= 0.5\ngini = 0.357\nsamples = 116\nvalue = [89, 27]"] ;
449 -> 450 ;
451 [label="X[8] <= 31.0\ngini = 0.337\nsamples = 112\nvalue = [88, 24]"] ;
450 -> 451 ;
452 [label="gini = 0.0\nsamples = 1\nvalue = [0, 1]"] ;
451 -> 452 ;
453 [label="X[9] <= 76.0\ngini = 0.329\nsamples = 111\nvalue = [88, 23]"] ;
451 -> 453 ;
454 [label="X[3] <= 2266.0\ngini = 0.39\nsamples = 64\nvalue = [47, 17]"] ;
453 -> 454 ;
455 [label="X[7] <= 901.5\ngini = 0.5\nsamples = 4\nvalue = [2, 2]"] ;
454 -> 455 ;
456 [label="gini = 0.444\nsamples = 3\nvalue = [2, 1]"] ;
455 -> 456 ;
457 [label="gini = 0.0\nsamples = 1\nvalue = [0, 1]"] ;
455 -> 457 ;
458 [label="X[4] <= 459.0\ngini = 0.375\nsamples = 60\nvalue = [45, 15]"] ;
454 -> 458 ;
459 [label="X[1] <= 8811.0\ngini = 0.32\nsamples = 30\nvalue = [24, 6]"] ;
458 -> 459 ;
460 [label="X[1] <= 8479.0\ngini = 0.337\nsamples = 28\nvalue = [22, 6]"] ;
459 -> 460 ;
461 [label="X[9] <= 36.0\ngini = 0.32\nsamples = 15\nvalue = [12, 3]"] ;
460 -> 461 ;
462 [label="X[33] <= -0.5\ngini = 0.32\nsamples = 10\nvalue = [8, 2]"] ;
461 -> 462 ;
463 [label="gini = 0.32\nsamples = 5\nvalue = [4, 1]"] ;
462 -> 463 ;
464 [label="gini = 0.32\nsamples = 5\nvalue = [4, 1]"] ;
462 -> 464 ;
465 [label="gini = 0.32\nsamples = 5\nvalue = [4, 1]"] ;
461 -> 465 ;
466 [label="X[5] <= 182.5\ngini = 0.355\nsamples = 13\nvalue = [10, 3]"] ;
460 -> 466 ;
467 [label="X[13] <= 77.5\ngini = 0.375\nsamples = 8\nvalue = [6, 2]"] ;
466 -> 467 ;
468 [label="gini = 0.375\nsamples = 4\nvalue = [3, 1]"] ;
467 -> 468 ;
469 [label="gini = 0.375\nsamples = 4\nvalue = [3, 1]"] ;
467 -> 469 ;
470 [label="gini = 0.32\nsamples = 5\nvalue = [4, 1]"] ;
466 -> 470 ;
471 [label="gini = 0.0\nsamples = 2\nvalue = [2, 0]"] ;
459 -> 471 ;
472 [label="X[11] <= 241.0\ngini = 0.42\nsamples = 30\nvalue = [21, 9]"] ;
458 -> 472 ;
473 [label="X[5] <= 184.0\ngini = 0.5\nsamples = 4\nvalue = [2, 2]"] ;
472 -> 473 ;
474 [label="gini = 0.5\nsamples = 2\nvalue = [1, 1]"] ;
473 -> 474 ;
475 [label="gini = 0.5\nsamples = 2\nvalue = [1, 1]"] ;
473 -> 475 ;
476 [label="X[6] <= 431.0\ngini = 0.393\nsamples = 26\nvalue = [19, 7]"] ;
472 -> 476 ;
477 [label="X[2] <= 1599.5\ngini = 0.403\nsamples = 25\nvalue = [18, 7]"] ;
476 -> 477 ;
478 [label="X[6] <= 304.0\ngini = 0.388\nsamples = 19\nvalue = [14, 5]"] ;
477 -> 478 ;
479 [label="X[10] <= 734.5\ngini = 0.375\nsamples = 12\nvalue = [9, 3]"] ;
478 -> 479 ;
480 [label="gini = 0.375\nsamples = 4\nvalue = [3, 1]"] ;
479 -> 480 ;
481 [label="X[4] <= 531.5\ngini = 0.375\nsamples = 8\nvalue = [6, 2]"] ;
479 -> 481 ;
482 [label="gini = 0.375\nsamples = 4\nvalue = [3, 1]"] ;
481 -> 482 ;
483 [label="gini = 0.375\nsamples = 4\nvalue = [3, 1]"] ;
481 -> 483 ;
484 [label="gini = 0.408\nsamples = 7\nvalue = [5, 2]"] ;
478 -> 484 ;
485 [label="X[13] <= 110.5\ngini = 0.444\nsamples = 6\nvalue = [4, 2]"] ;
477 -> 485 ;
486 [label="gini = 0.444\nsamples = 3\nvalue = [2, 1]"] ;
485 -> 486 ;
487 [label="gini = 0.444\nsamples = 3\nvalue = [2, 1]"] ;
485 -> 487 ;
488 [label="gini = 0.0\nsamples = 1\nvalue = [1, 0]"] ;
476 -> 488 ;
489 [label="X[2] <= 1511.0\ngini = 0.223\nsamples = 47\nvalue = [41, 6]"] ;
453 -> 489 ;
490 [label="gini = 0.0\nsamples = 1\nvalue = [0, 1]"] ;
489 -> 490 ;
491 [label="X[8] <= 227.5\ngini = 0.194\nsamples = 46\nvalue = [41, 5]"] ;
489 -> 491 ;
492 [label="X[6] <= 316.5\ngini = 0.278\nsamples = 12\nvalue = [10, 2]"] ;
491 -> 492 ;
493 [label="gini = 0.278\nsamples = 6\nvalue = [5, 1]"] ;
492 -> 493 ;
494 [label="gini = 0.278\nsamples = 6\nvalue = [5, 1]"] ;
492 -> 494 ;
495 [label="X[11] <= 991.0\ngini = 0.161\nsamples = 34\nvalue = [31, 3]"] ;
491 -> 495 ;
496 [label="X[13] <= 66.5\ngini = 0.18\nsamples = 30\nvalue = [27, 3]"] ;
495 -> 496 ;
497 [label="X[1] <= 9070.5\ngini = 0.198\nsamples = 18\nvalue = [16, 2]"] ;
496 -> 497 ;
498 [label="gini = 0.198\nsamples = 9\nvalue = [8, 1]"] ;
497 -> 498 ;
499 [label="gini = 0.198\nsamples = 9\nvalue = [8, 1]"] ;
497 -> 499 ;
500 [label="gini = 0.153\nsamples = 12\nvalue = [11, 1]"] ;
496 -> 500 ;
501 [label="gini = 0.0\nsamples = 4\nvalue = [4, 0]"] ;
495 -> 501 ;
502 [label="X[35] <= 6.5\ngini = 0.375\nsamples = 4\nvalue = [1, 3]"] ;
450 -> 502 ;
503 [label="gini = 0.5\nsamples = 2\nvalue = [1, 1]"] ;
502 -> 503 ;
504 [label="gini = 0.0\nsamples = 2\nvalue = [0, 2]"] ;
502 -> 504 ;
505 [label="gini = 0.0\nsamples = 4\nvalue = [0, 4]"] ;
449 -> 505 ;
506 [label="X[13] <= 71.5\ngini = 0.491\nsamples = 37\nvalue = [16, 21]"] ;
448 -> 506 ;
507 [label="X[12] <= 38.0\ngini = 0.133\nsamples = 14\nvalue = [1, 13]"] ;
506 -> 507 ;
508 [label="gini = 0.444\nsamples = 3\nvalue = [1, 2]"] ;
507 -> 508 ;
509 [label="gini = 0.0\nsamples = 11\nvalue = [0, 11]"] ;
507 -> 509 ;
510 [label="X[0] <= 2823.0\ngini = 0.454\nsamples = 23\nvalue = [15, 8]"] ;
506 -> 510 ;
511 [label="X[28] <= 4.5\ngini = 0.278\nsamples = 6\nvalue = [1, 5]"] ;
510 -> 511 ;
512 [label="gini = 0.0\nsamples = 4\nvalue = [0, 4]"] ;
511 -> 512 ;
513 [label="gini = 0.5\nsamples = 2\nvalue = [1, 1]"] ;
511 -> 513 ;
514 [label="X[12] <= 117.5\ngini = 0.291\nsamples = 17\nvalue = [14, 3]"] ;
510 -> 514 ;
515 [label="X[32] <= -0.5\ngini = 0.49\nsamples = 7\nvalue = [4, 3]"] ;
514 -> 515 ;
516 [label="X[3] <= 3187.5\ngini = 0.444\nsamples = 6\nvalue = [4, 2]"] ;
515 -> 516 ;
517 [label="gini = 0.444\nsamples = 3\nvalue = [2, 1]"] ;
516 -> 517 ;
518 [label="gini = 0.444\nsamples = 3\nvalue = [2, 1]"] ;
516 -> 518 ;
519 [label="gini = 0.0\nsamples = 1\nvalue = [0, 1]"] ;
515 -> 519 ;
520 [label="gini = 0.0\nsamples = 10\nvalue = [10, 0]"] ;
514 -> 520 ;
}
